Language model created by QuickLM on Mon Aug  5 02:47:06 EDT 2024
Copyright (c) 1996-2010 Carnegie Mellon University and Alexander I. Rudnicky

The model is in standard ARPA format, designed by Doug Paul while he was at MITRE.

The code that was used to produce this language model is available in Open Source.
Please visit http://www.speech.cs.cmu.edu/tools/ for more information

The (fixed) discount mass is 0.5. The backoffs are computed using the ratio method.
This model based on a corpus of 4 sentences and 5 words

\data\
ngram 1=5
ngram 2=5
ngram 3=3

\1-grams:
-0.8451 </s> -0.3010
-0.8451 <s> -0.2341
-1.1461 AIR -0.2688
-1.1461 AIRSHIP -0.2341
-1.1461 SHIP -0.2341

\2-grams:
-0.6021 <s> AIR 0.0000
-0.6021 <s> AIRSHIP 0.0000
-0.3010 AIR SHIP 0.0000
-0.3010 AIRSHIP </s> -0.3010
-0.3010 SHIP </s> -0.3010

\3-grams:
-0.3010 <s> AIR SHIP
-0.3010 <s> AIRSHIP </s>
-0.3010 AIR SHIP </s>

\end\
